{"feature_names": ["age", "sex", "cp", "trestbps", "chol", "fbs", "restecg", "thalach", "exang", "oldpeak", "slope", "ca", "thal"], "means": [54.43414634146342, 0.6956097560975609, 0.9424390243902439, 131.61170731707318, 246.0, 0.14926829268292682, 0.5297560975609756, 149.11414634146342, 0.33658536585365856, 1.0715121951219515, 1.3853658536585365, 0.7541463414634146, 2.32390243902439], "stds": [9.072290233244278, 0.4603733241196493, 1.029640743645865, 17.516718005376408, 51.59251020618206, 0.3565266897271575, 0.5278775668748921, 23.005723745977207, 0.47277237600371186, 1.175053255150176, 0.6177552671745918, 1.0307976650242823, 0.6206602380510298], "layers": [{"W_shape": [13, 16], "activation": "relu"}, {"W_shape": [16, 8], "activation": "relu"}, {"W_shape": [8, 1], "activation": "sigmoid"}], "weights": [{"W": [[-0.3642156801988337, 0.681656616778517, 0.577652004500624, 0.16427388183928165, -0.2182456468444827, -0.38001188028572297, -0.5867380274060396, 0.08249708893830708, 0.10368396423480192, 0.6721425257366327, -0.29347957778180916, -0.0430840324172293, 0.2392150720281659, -0.4251901957840933, 0.03450989481125447, -0.6576105194698258], [-0.12830269227320415, -0.0923773302287919, -0.0632524457096799, -0.6659259314730337, 0.12604070185468366, -0.6639159434246623, -0.1720832509791116, -0.7158414151040674, 0.16601499919349233, 0.4781160236165601, -0.3074458113473436, 0.34875227906463485, -0.03564490631287528, 0.19862321278219705, 0.43443196543720947, -0.6755209447601511], [-0.5319529469725263, 0.29271448984077414, 0.686311161603426, 0.12128853747966581, -0.506782391793252, -0.5250074692877688, 0.4405498559196277, -0.7662850408097966, -0.0976689842269915, -0.2359775003271942, -0.6923852450333504, 0.7612591390479858, -0.44891442101266504, -0.1480234792228931, -0.3962389841810457, -0.03690730325101078], [0.06484887346853027, -0.34024277449416623, 0.6047855850824757, 0.003750537432412092, 0.24173705598712356, 0.4570230153152019, -0.11046467403945083, 0.2623442491048357, -0.6156485358553434, -0.19436206094208924, -0.4131193233655199, 0.00522630340661651, -0.16478483423034446, -0.2731193005881858, 0.274949128971767, -0.24603635681553737], [-0.828036449069972, -0.27537414691996365, -0.9288652039873507, 0.22447510875066062, -0.5641813109036515, 0.25447392512135136, 0.6929596781556776, -0.4158817951806157, -0.25589030339966157, 0.19145804811115175, -0.04643542879677468, 0.20499930159128513, 0.5721367548921475, -0.48291247782353874, -0.7396467101503784, -0.3797382832712589], [0.32771304950736757, 0.26801761387405115, -0.0017420076368569737, -0.7209378614528659, -0.5339426591178608, -0.40237542436016976, 0.3802132010761092, 0.39792482832844783, 0.6175357966164468, 0.3125104083336024, -0.057748993359752684, 0.11994319918626, 0.4841193403437895, 0.3338119432997209, 0.4850603485728325, 0.031466084818223876], [-0.019986456363285336, 0.04613808897225188, -0.390682088028239, -0.7326563965869591, -0.8330779463513555, 0.15593503657046215, -0.1101125158502718, -0.17729593022957216, 0.1275093836794745, -0.45758105719700204, -0.46287622494153824, 0.6438877038306172, -0.06585914227838352, -0.2932759452956365, -0.34848017548318827, -0.2611989173645926], [0.7046263229580961, -0.16080827183174756, -0.1962951617185488, 0.3776828586410119, 0.18304707624171454, 0.06415881536789414, 0.276536440702659, 0.705482036905542, 0.34707596049914646, 0.5725512068126287, 0.04083400912598269, -0.47283906431313544, -0.477365980456734, 0.5700046303527415, 0.48518374453375657, 0.39615892844044936], [-0.8932301824522993, 0.6448786987518088, -0.19019150068845897, -0.11791205468401018, -0.25114224067405677, -0.30161536996310456, 0.8459734033554371, 0.25973573245865744, 0.027818057364574596, 0.30464037231959734, -0.10885797942726941, 0.6194387709223009, 0.5872727318618046, -0.3003309728187132, 0.0901494754872665, -0.5054354455930187], [-0.09221985261808918, -0.796909870428784, -0.364873973144631, 0.40936165269292774, -0.6080088896854948, 0.17133879814164185, 0.3093640787841628, -0.14224261718367578, -0.4479621440213006, 0.19767326241107672, 1.0216666384315811, -0.0984615243025149, 0.3883715132306467, 0.5309046375280647, -0.1860046307172295, -0.16842002711899173], [-0.1234474804741952, 0.12385767404554422, -0.09630707924370634, -0.13998696990788206, 0.10512695397455564, 0.7887901267474592, 0.04874547771420876, -0.626835209288223, -0.5135807306147696, 0.031298989064608346, 0.2657818260882039, -0.3634954487429185, -0.037672064555861584, -0.6610969528515485, 0.06577086656312078, -0.7415771322111466], [-0.09423898557639382, 0.14749494809568509, 0.6513634619030274, -0.6591621430575422, -0.04771459513252513, -0.29189988199147426, 0.496133725648738, -0.060286959909329335, -0.8958029080610813, 0.23280350298731234, 0.2763398128466379, -0.03710976544294791, 0.11936109012254698, 0.10877068511419904, -1.2216596798625026, 0.6568176218303023], [0.27240606900135883, 0.5180976086532818, -0.339698863177198, -0.6068773233852366, 0.8399324624344832, 0.005318227493691203, 0.3838248027998486, 0.6439599539896494, -0.18546063207281188, -0.3806127917991804, 0.001351351220455516, 0.06440839654446583, 0.2417606121034296, -0.40679279270123264, -0.067586623782101, -0.15538018419697938]], "b": [-0.07895114070988137, -0.1910231323453896, 0.34458197268391955, 0.4620603576493013, 0.3754357672564179, -0.07609312606067148, 0.6743024626940343, -0.0015371229803109422, -0.0968912687128524, 0.37829214978362913, 0.3813354574633981, 0.32474104033861223, 0.14745008514394936, -0.0785514646213784, -0.1675666342667472, 0.051018234684797624]}, {"W": [[-0.44213552737661715, -0.15705063167293062, 0.8180121543133314, 0.42278838142783265, 0.34048457551999883, 0.39400918022138326, 0.5374251215189444, 0.1813821342390565], [-0.1355681975193755, 0.4785272933976708, -0.9791078987269958, 1.1811345840067924, 0.2348511607522089, -0.9285742457751474, 0.52558924703726, -0.1528687320507786], [0.4631583796514182, 0.49873345034188976, 0.6847315854239763, 0.22971219817771302, -0.6330189243823663, 0.6551116253887845, 0.24276904817731518, 0.5478128910420661], [0.3438641178026835, 0.5487838963912937, -0.5599618358960038, 0.38313368887459165, 0.682598019394104, -1.0722394146678438, -0.016305576974620407, 0.38098933356426296], [0.49250703536084517, 0.020427727110169464, 0.6798819108991958, -0.3441900076249415, 0.23584965338798697, 0.8754965409275988, -1.022278299545001, 0.07260708450609435], [0.4513063375816969, 0.3669562164256805, 0.645632250901207, 0.24982630243108944, -0.09020126382031438, -0.14670166389801817, 0.6473557773552928, 0.3266348444848945], [0.26564856708504153, 0.5292944860152857, 0.15151118673819874, 0.5151067499336768, 0.5520945483124169, 0.6405855797743466, 0.6242460488199936, 0.6631405445544577], [1.1406557843429828, -1.093408032500092, 0.4994353945162667, -1.4919842791689417, -0.4484378670203427, 0.35232281457367753, -0.7360965213858689, -0.34767852865674514], [-0.5207019113349993, 0.34850565712654646, -1.1202948098587504, 0.027779869787766025, 0.5113367086906394, -0.6434782604866616, 0.05044416203705415, 0.2519539199106184], [0.910232785319514, -0.5567099059236035, 0.6934067581974036, -0.582790404254933, -0.695748066836828, 0.46778219824177414, -0.26509885743209877, -0.06113506036976054], [0.684127800647037, 0.11309122907337593, 0.4537172465233616, -1.0718629782650317, 0.338321196935108, 0.25477137516112597, -0.057796973218370844, -0.9581398220361775], [-0.018583398580937556, 0.07466223856552263, 0.8437654909365506, 0.14521852479201403, -0.35383744257308053, 0.26401452241047857, -0.5972315110811047, -0.4072050340510376], [0.3005775896491339, 0.09615941784183932, 0.37709353986689514, -0.41713561256323073, 0.6239223041605628, 0.702596553441861, -0.2340097645838378, -0.19200773274833255], [0.44293872683499386, -0.5731118296462306, 0.10125251786262962, -0.06048237736376014, -0.6575399662135252, -0.06548699209669613, -0.8006974301222187, -0.6600236594215659], [0.014760926163972714, 0.6005892033812387, -1.059870167502451, 0.5509064354538914, 0.6961084893726776, -0.8722596461956477, 0.562905512893614, 0.45413278481062547], [-0.6429934733977085, 0.6324683604286516, 0.005746031874321733, 0.6512600689806043, 0.02428758408587788, 0.2546436609912644, 0.7275419438192182, 0.7445916230788323]], "b": [0.26975958366511893, -0.4712183187027699, -0.03091737817225951, -0.059170221662574476, -0.2913534657402804, 0.3153190722100826, 0.6019264969665344, 0.09908717661846461]}, {"W": [[0.5356091388143381], [-0.6541216866737144], [0.99287093043978], [-1.3214785693174382], [-1.528644087292843], [1.2449823288873567], [-2.0176220085623533], [-1.1796499241378258]], "b": [0.6869183551604854]}]}
